<?xml version="1.0" encoding="UTF-8"?>
<PMML xmlns="http://www.dmg.org/PMML-4_4" version="4.4">
    <Header copyright="Copyright (c) 2018 Software AG" description="Default Description">
        <Application name="Nyoka" version="4.1.0"/>
        <Timestamp>2020-01-13 09:53:41.275968</Timestamp>
    </Header>
    <DataDictionary numberOfFields="5">
        <DataField name="age" optype="continuous" dataType="double"/>
        <DataField name="income" optype="continuous" dataType="double"/>
        <DataField name="class" optype="continuous" dataType="double"/>
        <DataField name="response" optype="continuous" dataType="double"/>
        <DataField name="segment" optype="continuous" dataType="double"/>
    </DataDictionary>
    <MiningModel modelName="RandomForestRegressor" functionName="regression">
        <MiningSchema>
            <MiningField name="age" usageType="active" optype="continuous"/>
            <MiningField name="income" usageType="active" optype="continuous"/>
            <MiningField name="class" usageType="active" optype="continuous"/>
            <MiningField name="response" usageType="active" optype="continuous"/>
            <MiningField name="segment" usageType="target" optype="continuous"/>
        </MiningSchema>
        <Output>
            <OutputField name="predicted_segment" optype="continuous" dataType="double" feature="predictedValue"/>
        </Output>
        <Segmentation multipleModelMethod="average" missingThreshold="1">
            <Segment id="0" weight="1">
                <True/>
                <TreeModel modelName="DecisionTreeRegressor" functionName="classification" missingValuePenalty="1.0">
                    <MiningSchema>
                        <MiningField name="age" usageType="active"/>
                        <MiningField name="income" usageType="active"/>
                        <MiningField name="class" usageType="active"/>
                        <MiningField name="response" usageType="active"/>
                    </MiningSchema>
                    <Node id="0" recordCount="1903.0">
                        <True/>
                        <Node id="1" recordCount="1074.0">
                            <SimplePredicate field="response" operator="lessOrEqual" value="0.5"/>
                            <Node id="2" score="0.0000000000000000" recordCount="703.0">
                                <SimplePredicate field="class" operator="lessOrEqual" value="0.5"/>
                            </Node>
                            <Node id="3" score="1.0000000000000000" recordCount="371.0">
                                <SimplePredicate field="class" operator="greaterThan" value="0.5"/>
                            </Node>
                        </Node>
                        <Node id="4" recordCount="829.0">
                            <SimplePredicate field="response" operator="greaterThan" value="0.5"/>
                            <Node id="5" score="1.0000000000000000" recordCount="629.0">
                                <SimplePredicate field="class" operator="lessOrEqual" value="0.5"/>
                            </Node>
                            <Node id="6" score="2.0000000000000000" recordCount="200.0">
                                <SimplePredicate field="class" operator="greaterThan" value="0.5"/>
                            </Node>
                        </Node>
                    </Node>
                </TreeModel>
            </Segment>
            <Segment id="1" weight="1">
                <True/>
                <TreeModel modelName="DecisionTreeRegressor" functionName="classification" missingValuePenalty="1.0">
                    <MiningSchema>
                        <MiningField name="age" usageType="active"/>
                        <MiningField name="income" usageType="active"/>
                        <MiningField name="class" usageType="active"/>
                        <MiningField name="response" usageType="active"/>
                    </MiningSchema>
                    <Node id="0" recordCount="1907.0">
                        <True/>
                        <Node id="1" recordCount="1118.0">
                            <SimplePredicate field="response" operator="lessOrEqual" value="0.5"/>
                            <Node id="2" score="0.0000000000000000" recordCount="728.0">
                                <SimplePredicate field="class" operator="lessOrEqual" value="0.5"/>
                            </Node>
                            <Node id="3" score="1.0000000000000000" recordCount="390.0">
                                <SimplePredicate field="class" operator="greaterThan" value="0.5"/>
                            </Node>
                        </Node>
                        <Node id="4" recordCount="789.0">
                            <SimplePredicate field="response" operator="greaterThan" value="0.5"/>
                            <Node id="5" score="1.0000000000000000" recordCount="597.0">
                                <SimplePredicate field="class" operator="lessOrEqual" value="0.5"/>
                            </Node>
                            <Node id="6" score="2.0000000000000000" recordCount="192.0">
                                <SimplePredicate field="class" operator="greaterThan" value="0.5"/>
                            </Node>
                        </Node>
                    </Node>
                </TreeModel>
            </Segment>
            <Segment id="2" weight="1">
                <True/>
                <TreeModel modelName="DecisionTreeRegressor" functionName="classification" missingValuePenalty="1.0">
                    <MiningSchema>
                        <MiningField name="age" usageType="active"/>
                        <MiningField name="income" usageType="active"/>
                        <MiningField name="class" usageType="active"/>
                        <MiningField name="response" usageType="active"/>
                    </MiningSchema>
                    <Node id="0" recordCount="1903.0">
                        <True/>
                        <Node id="1" recordCount="1111.0">
                            <SimplePredicate field="response" operator="lessOrEqual" value="0.5"/>
                            <Node id="2" score="0.0000000000000000" recordCount="698.0">
                                <SimplePredicate field="class" operator="lessOrEqual" value="0.5"/>
                            </Node>
                            <Node id="3" score="1.0000000000000000" recordCount="413.0">
                                <SimplePredicate field="class" operator="greaterThan" value="0.5"/>
                            </Node>
                        </Node>
                        <Node id="4" recordCount="792.0">
                            <SimplePredicate field="response" operator="greaterThan" value="0.5"/>
                            <Node id="5" score="1.0000000000000000" recordCount="592.0">
                                <SimplePredicate field="class" operator="lessOrEqual" value="0.5"/>
                            </Node>
                            <Node id="6" score="2.0000000000000000" recordCount="200.0">
                                <SimplePredicate field="class" operator="greaterThan" value="0.5"/>
                            </Node>
                        </Node>
                    </Node>
                </TreeModel>
            </Segment>
            <Segment id="3" weight="1">
                <True/>
                <TreeModel modelName="DecisionTreeRegressor" functionName="classification" missingValuePenalty="1.0">
                    <MiningSchema>
                        <MiningField name="age" usageType="active"/>
                        <MiningField name="income" usageType="active"/>
                        <MiningField name="class" usageType="active"/>
                        <MiningField name="response" usageType="active"/>
                    </MiningSchema>
                    <Node id="0" recordCount="1889.0">
                        <True/>
                        <Node id="1" recordCount="1083.0">
                            <SimplePredicate field="response" operator="lessOrEqual" value="0.5"/>
                            <Node id="2" score="0.0000000000000000" recordCount="710.0">
                                <SimplePredicate field="class" operator="lessOrEqual" value="0.5"/>
                            </Node>
                            <Node id="3" score="1.0000000000000000" recordCount="373.0">
                                <SimplePredicate field="class" operator="greaterThan" value="0.5"/>
                            </Node>
                        </Node>
                        <Node id="4" recordCount="806.0">
                            <SimplePredicate field="response" operator="greaterThan" value="0.5"/>
                            <Node id="5" score="1.0000000000000000" recordCount="622.0">
                                <SimplePredicate field="class" operator="lessOrEqual" value="0.5"/>
                            </Node>
                            <Node id="6" score="2.0000000000000000" recordCount="184.0">
                                <SimplePredicate field="class" operator="greaterThan" value="0.5"/>
                            </Node>
                        </Node>
                    </Node>
                </TreeModel>
            </Segment>
            <Segment id="4" weight="1">
                <True/>
                <TreeModel modelName="DecisionTreeRegressor" functionName="classification" missingValuePenalty="1.0">
                    <MiningSchema>
                        <MiningField name="age" usageType="active"/>
                        <MiningField name="income" usageType="active"/>
                        <MiningField name="class" usageType="active"/>
                        <MiningField name="response" usageType="active"/>
                    </MiningSchema>
                    <Node id="0" recordCount="1891.0">
                        <True/>
                        <Node id="1" recordCount="1099.0">
                            <SimplePredicate field="response" operator="lessOrEqual" value="0.5"/>
                            <Node id="2" score="0.0000000000000000" recordCount="712.0">
                                <SimplePredicate field="class" operator="lessOrEqual" value="0.5"/>
                            </Node>
                            <Node id="3" score="1.0000000000000000" recordCount="387.0">
                                <SimplePredicate field="class" operator="greaterThan" value="0.5"/>
                            </Node>
                        </Node>
                        <Node id="4" recordCount="792.0">
                            <SimplePredicate field="response" operator="greaterThan" value="0.5"/>
                            <Node id="5" score="1.0000000000000000" recordCount="586.0">
                                <SimplePredicate field="class" operator="lessOrEqual" value="0.5"/>
                            </Node>
                            <Node id="6" score="2.0000000000000000" recordCount="206.0">
                                <SimplePredicate field="class" operator="greaterThan" value="0.5"/>
                            </Node>
                        </Node>
                    </Node>
                </TreeModel>
            </Segment>
            <Segment id="5" weight="1">
                <True/>
                <TreeModel modelName="DecisionTreeRegressor" functionName="classification" missingValuePenalty="1.0">
                    <MiningSchema>
                        <MiningField name="age" usageType="active"/>
                        <MiningField name="income" usageType="active"/>
                        <MiningField name="class" usageType="active"/>
                        <MiningField name="response" usageType="active"/>
                    </MiningSchema>
                    <Node id="0" recordCount="1932.0">
                        <True/>
                        <Node id="1" recordCount="1124.0">
                            <SimplePredicate field="response" operator="lessOrEqual" value="0.5"/>
                            <Node id="2" score="0.0000000000000000" recordCount="726.0">
                                <SimplePredicate field="class" operator="lessOrEqual" value="0.5"/>
                            </Node>
                            <Node id="3" score="1.0000000000000000" recordCount="398.0">
                                <SimplePredicate field="class" operator="greaterThan" value="0.5"/>
                            </Node>
                        </Node>
                        <Node id="4" recordCount="808.0">
                            <SimplePredicate field="response" operator="greaterThan" value="0.5"/>
                            <Node id="5" score="1.0000000000000000" recordCount="600.0">
                                <SimplePredicate field="class" operator="lessOrEqual" value="0.5"/>
                            </Node>
                            <Node id="6" score="2.0000000000000000" recordCount="208.0">
                                <SimplePredicate field="class" operator="greaterThan" value="0.5"/>
                            </Node>
                        </Node>
                    </Node>
                </TreeModel>
            </Segment>
            <Segment id="6" weight="1">
                <True/>
                <TreeModel modelName="DecisionTreeRegressor" functionName="classification" missingValuePenalty="1.0">
                    <MiningSchema>
                        <MiningField name="age" usageType="active"/>
                        <MiningField name="income" usageType="active"/>
                        <MiningField name="class" usageType="active"/>
                        <MiningField name="response" usageType="active"/>
                    </MiningSchema>
                    <Node id="0" recordCount="1895.0">
                        <True/>
                        <Node id="1" recordCount="1104.0">
                            <SimplePredicate field="response" operator="lessOrEqual" value="0.5"/>
                            <Node id="2" score="0.0000000000000000" recordCount="726.0">
                                <SimplePredicate field="class" operator="lessOrEqual" value="0.5"/>
                            </Node>
                            <Node id="3" score="1.0000000000000000" recordCount="378.0">
                                <SimplePredicate field="class" operator="greaterThan" value="0.5"/>
                            </Node>
                        </Node>
                        <Node id="4" recordCount="791.0">
                            <SimplePredicate field="response" operator="greaterThan" value="0.5"/>
                            <Node id="5" score="1.0000000000000000" recordCount="584.0">
                                <SimplePredicate field="class" operator="lessOrEqual" value="0.5"/>
                            </Node>
                            <Node id="6" score="2.0000000000000000" recordCount="207.0">
                                <SimplePredicate field="class" operator="greaterThan" value="0.5"/>
                            </Node>
                        </Node>
                    </Node>
                </TreeModel>
            </Segment>
            <Segment id="7" weight="1">
                <True/>
                <TreeModel modelName="DecisionTreeRegressor" functionName="classification" missingValuePenalty="1.0">
                    <MiningSchema>
                        <MiningField name="age" usageType="active"/>
                        <MiningField name="income" usageType="active"/>
                        <MiningField name="class" usageType="active"/>
                        <MiningField name="response" usageType="active"/>
                    </MiningSchema>
                    <Node id="0" recordCount="1914.0">
                        <True/>
                        <Node id="1" recordCount="1122.0">
                            <SimplePredicate field="response" operator="lessOrEqual" value="0.5"/>
                            <Node id="2" score="0.0000000000000000" recordCount="729.0">
                                <SimplePredicate field="class" operator="lessOrEqual" value="0.5"/>
                            </Node>
                            <Node id="3" score="1.0000000000000000" recordCount="393.0">
                                <SimplePredicate field="class" operator="greaterThan" value="0.5"/>
                            </Node>
                        </Node>
                        <Node id="4" recordCount="792.0">
                            <SimplePredicate field="response" operator="greaterThan" value="0.5"/>
                            <Node id="5" score="1.0000000000000000" recordCount="586.0">
                                <SimplePredicate field="class" operator="lessOrEqual" value="0.5"/>
                            </Node>
                            <Node id="6" score="2.0000000000000000" recordCount="206.0">
                                <SimplePredicate field="class" operator="greaterThan" value="0.5"/>
                            </Node>
                        </Node>
                    </Node>
                </TreeModel>
            </Segment>
            <Segment id="8" weight="1">
                <True/>
                <TreeModel modelName="DecisionTreeRegressor" functionName="classification" missingValuePenalty="1.0">
                    <MiningSchema>
                        <MiningField name="age" usageType="active"/>
                        <MiningField name="income" usageType="active"/>
                        <MiningField name="class" usageType="active"/>
                        <MiningField name="response" usageType="active"/>
                    </MiningSchema>
                    <Node id="0" recordCount="1910.0">
                        <True/>
                        <Node id="1" recordCount="1110.0">
                            <SimplePredicate field="response" operator="lessOrEqual" value="0.5"/>
                            <Node id="2" score="0.0000000000000000" recordCount="689.0">
                                <SimplePredicate field="class" operator="lessOrEqual" value="0.5"/>
                            </Node>
                            <Node id="3" score="1.0000000000000000" recordCount="421.0">
                                <SimplePredicate field="class" operator="greaterThan" value="0.5"/>
                            </Node>
                        </Node>
                        <Node id="4" recordCount="800.0">
                            <SimplePredicate field="response" operator="greaterThan" value="0.5"/>
                            <Node id="5" score="1.0000000000000000" recordCount="600.0">
                                <SimplePredicate field="class" operator="lessOrEqual" value="0.5"/>
                            </Node>
                            <Node id="6" score="2.0000000000000000" recordCount="200.0">
                                <SimplePredicate field="class" operator="greaterThan" value="0.5"/>
                            </Node>
                        </Node>
                    </Node>
                </TreeModel>
            </Segment>
            <Segment id="9" weight="1">
                <True/>
                <TreeModel modelName="DecisionTreeRegressor" functionName="classification" missingValuePenalty="1.0">
                    <MiningSchema>
                        <MiningField name="age" usageType="active"/>
                        <MiningField name="income" usageType="active"/>
                        <MiningField name="class" usageType="active"/>
                        <MiningField name="response" usageType="active"/>
                    </MiningSchema>
                    <Node id="0" recordCount="1896.0">
                        <True/>
                        <Node id="1" recordCount="1097.0">
                            <SimplePredicate field="response" operator="lessOrEqual" value="0.5"/>
                            <Node id="2" score="0.0000000000000000" recordCount="718.0">
                                <SimplePredicate field="class" operator="lessOrEqual" value="0.5"/>
                            </Node>
                            <Node id="3" score="1.0000000000000000" recordCount="379.0">
                                <SimplePredicate field="class" operator="greaterThan" value="0.5"/>
                            </Node>
                        </Node>
                        <Node id="4" recordCount="799.0">
                            <SimplePredicate field="response" operator="greaterThan" value="0.5"/>
                            <Node id="5" score="1.0000000000000000" recordCount="604.0">
                                <SimplePredicate field="class" operator="lessOrEqual" value="0.5"/>
                            </Node>
                            <Node id="6" score="2.0000000000000000" recordCount="195.0">
                                <SimplePredicate field="class" operator="greaterThan" value="0.5"/>
                            </Node>
                        </Node>
                    </Node>
                </TreeModel>
            </Segment>
            <Segment id="10" weight="1">
                <True/>
                <TreeModel modelName="DecisionTreeRegressor" functionName="classification" missingValuePenalty="1.0">
                    <MiningSchema>
                        <MiningField name="age" usageType="active"/>
                        <MiningField name="income" usageType="active"/>
                        <MiningField name="class" usageType="active"/>
                        <MiningField name="response" usageType="active"/>
                    </MiningSchema>
                    <Node id="0" recordCount="1904.0">
                        <True/>
                        <Node id="1" recordCount="1127.0">
                            <SimplePredicate field="response" operator="lessOrEqual" value="0.5"/>
                            <Node id="2" score="0.0000000000000000" recordCount="733.0">
                                <SimplePredicate field="class" operator="lessOrEqual" value="0.5"/>
                            </Node>
                            <Node id="3" score="1.0000000000000000" recordCount="394.0">
                                <SimplePredicate field="class" operator="greaterThan" value="0.5"/>
                            </Node>
                        </Node>
                        <Node id="4" recordCount="777.0">
                            <SimplePredicate field="response" operator="greaterThan" value="0.5"/>
                            <Node id="5" score="1.0000000000000000" recordCount="579.0">
                                <SimplePredicate field="class" operator="lessOrEqual" value="0.5"/>
                            </Node>
                            <Node id="6" score="2.0000000000000000" recordCount="198.0">
                                <SimplePredicate field="class" operator="greaterThan" value="0.5"/>
                            </Node>
                        </Node>
                    </Node>
                </TreeModel>
            </Segment>
            <Segment id="11" weight="1">
                <True/>
                <TreeModel modelName="DecisionTreeRegressor" functionName="classification" missingValuePenalty="1.0">
                    <MiningSchema>
                        <MiningField name="age" usageType="active"/>
                        <MiningField name="income" usageType="active"/>
                        <MiningField name="class" usageType="active"/>
                        <MiningField name="response" usageType="active"/>
                    </MiningSchema>
                    <Node id="0" recordCount="1892.0">
                        <True/>
                        <Node id="1" recordCount="1088.0">
                            <SimplePredicate field="response" operator="lessOrEqual" value="0.5"/>
                            <Node id="2" score="0.0000000000000000" recordCount="701.0">
                                <SimplePredicate field="class" operator="lessOrEqual" value="0.5"/>
                            </Node>
                            <Node id="3" score="1.0000000000000000" recordCount="387.0">
                                <SimplePredicate field="class" operator="greaterThan" value="0.5"/>
                            </Node>
                        </Node>
                        <Node id="4" recordCount="804.0">
                            <SimplePredicate field="response" operator="greaterThan" value="0.5"/>
                            <Node id="5" score="1.0000000000000000" recordCount="617.0">
                                <SimplePredicate field="class" operator="lessOrEqual" value="0.5"/>
                            </Node>
                            <Node id="6" score="2.0000000000000000" recordCount="187.0">
                                <SimplePredicate field="class" operator="greaterThan" value="0.5"/>
                            </Node>
                        </Node>
                    </Node>
                </TreeModel>
            </Segment>
            <Segment id="12" weight="1">
                <True/>
                <TreeModel modelName="DecisionTreeRegressor" functionName="classification" missingValuePenalty="1.0">
                    <MiningSchema>
                        <MiningField name="age" usageType="active"/>
                        <MiningField name="income" usageType="active"/>
                        <MiningField name="class" usageType="active"/>
                        <MiningField name="response" usageType="active"/>
                    </MiningSchema>
                    <Node id="0" recordCount="1899.0">
                        <True/>
                        <Node id="1" recordCount="1090.0">
                            <SimplePredicate field="response" operator="lessOrEqual" value="0.5"/>
                            <Node id="2" score="0.0000000000000000" recordCount="712.0">
                                <SimplePredicate field="class" operator="lessOrEqual" value="0.5"/>
                            </Node>
                            <Node id="3" score="1.0000000000000000" recordCount="378.0">
                                <SimplePredicate field="class" operator="greaterThan" value="0.5"/>
                            </Node>
                        </Node>
                        <Node id="4" recordCount="809.0">
                            <SimplePredicate field="response" operator="greaterThan" value="0.5"/>
                            <Node id="5" score="1.0000000000000000" recordCount="596.0">
                                <SimplePredicate field="class" operator="lessOrEqual" value="0.5"/>
                            </Node>
                            <Node id="6" score="2.0000000000000000" recordCount="213.0">
                                <SimplePredicate field="class" operator="greaterThan" value="0.5"/>
                            </Node>
                        </Node>
                    </Node>
                </TreeModel>
            </Segment>
            <Segment id="13" weight="1">
                <True/>
                <TreeModel modelName="DecisionTreeRegressor" functionName="classification" missingValuePenalty="1.0">
                    <MiningSchema>
                        <MiningField name="age" usageType="active"/>
                        <MiningField name="income" usageType="active"/>
                        <MiningField name="class" usageType="active"/>
                        <MiningField name="response" usageType="active"/>
                    </MiningSchema>
                    <Node id="0" recordCount="1884.0">
                        <True/>
                        <Node id="1" recordCount="1108.0">
                            <SimplePredicate field="response" operator="lessOrEqual" value="0.5"/>
                            <Node id="2" score="0.0000000000000000" recordCount="723.0">
                                <SimplePredicate field="class" operator="lessOrEqual" value="0.5"/>
                            </Node>
                            <Node id="3" score="1.0000000000000000" recordCount="385.0">
                                <SimplePredicate field="class" operator="greaterThan" value="0.5"/>
                            </Node>
                        </Node>
                        <Node id="4" recordCount="776.0">
                            <SimplePredicate field="response" operator="greaterThan" value="0.5"/>
                            <Node id="5" score="1.0000000000000000" recordCount="582.0">
                                <SimplePredicate field="class" operator="lessOrEqual" value="0.5"/>
                            </Node>
                            <Node id="6" score="2.0000000000000000" recordCount="194.0">
                                <SimplePredicate field="class" operator="greaterThan" value="0.5"/>
                            </Node>
                        </Node>
                    </Node>
                </TreeModel>
            </Segment>
            <Segment id="14" weight="1">
                <True/>
                <TreeModel modelName="DecisionTreeRegressor" functionName="classification" missingValuePenalty="1.0">
                    <MiningSchema>
                        <MiningField name="age" usageType="active"/>
                        <MiningField name="income" usageType="active"/>
                        <MiningField name="class" usageType="active"/>
                        <MiningField name="response" usageType="active"/>
                    </MiningSchema>
                    <Node id="0" recordCount="1886.0">
                        <True/>
                        <Node id="1" recordCount="1088.0">
                            <SimplePredicate field="response" operator="lessOrEqual" value="0.5"/>
                            <Node id="2" score="0.0000000000000000" recordCount="687.0">
                                <SimplePredicate field="class" operator="lessOrEqual" value="0.5"/>
                            </Node>
                            <Node id="3" score="1.0000000000000000" recordCount="401.0">
                                <SimplePredicate field="class" operator="greaterThan" value="0.5"/>
                            </Node>
                        </Node>
                        <Node id="4" recordCount="798.0">
                            <SimplePredicate field="response" operator="greaterThan" value="0.5"/>
                            <Node id="5" score="1.0000000000000000" recordCount="602.0">
                                <SimplePredicate field="class" operator="lessOrEqual" value="0.5"/>
                            </Node>
                            <Node id="6" score="2.0000000000000000" recordCount="196.0">
                                <SimplePredicate field="class" operator="greaterThan" value="0.5"/>
                            </Node>
                        </Node>
                    </Node>
                </TreeModel>
            </Segment>
            <Segment id="15" weight="1">
                <True/>
                <TreeModel modelName="DecisionTreeRegressor" functionName="classification" missingValuePenalty="1.0">
                    <MiningSchema>
                        <MiningField name="age" usageType="active"/>
                        <MiningField name="income" usageType="active"/>
                        <MiningField name="class" usageType="active"/>
                        <MiningField name="response" usageType="active"/>
                    </MiningSchema>
                    <Node id="0" recordCount="1912.0">
                        <True/>
                        <Node id="1" recordCount="1125.0">
                            <SimplePredicate field="response" operator="lessOrEqual" value="0.5"/>
                            <Node id="2" score="0.0000000000000000" recordCount="738.0">
                                <SimplePredicate field="class" operator="lessOrEqual" value="0.5"/>
                            </Node>
                            <Node id="3" score="1.0000000000000000" recordCount="387.0">
                                <SimplePredicate field="class" operator="greaterThan" value="0.5"/>
                            </Node>
                        </Node>
                        <Node id="4" recordCount="787.0">
                            <SimplePredicate field="response" operator="greaterThan" value="0.5"/>
                            <Node id="5" score="1.0000000000000000" recordCount="587.0">
                                <SimplePredicate field="class" operator="lessOrEqual" value="0.5"/>
                            </Node>
                            <Node id="6" score="2.0000000000000000" recordCount="200.0">
                                <SimplePredicate field="class" operator="greaterThan" value="0.5"/>
                            </Node>
                        </Node>
                    </Node>
                </TreeModel>
            </Segment>
            <Segment id="16" weight="1">
                <True/>
                <TreeModel modelName="DecisionTreeRegressor" functionName="classification" missingValuePenalty="1.0">
                    <MiningSchema>
                        <MiningField name="age" usageType="active"/>
                        <MiningField name="income" usageType="active"/>
                        <MiningField name="class" usageType="active"/>
                        <MiningField name="response" usageType="active"/>
                    </MiningSchema>
                    <Node id="0" recordCount="1906.0">
                        <True/>
                        <Node id="1" recordCount="1101.0">
                            <SimplePredicate field="response" operator="lessOrEqual" value="0.5"/>
                            <Node id="2" score="0.0000000000000000" recordCount="730.0">
                                <SimplePredicate field="class" operator="lessOrEqual" value="0.5"/>
                            </Node>
                            <Node id="3" score="1.0000000000000000" recordCount="371.0">
                                <SimplePredicate field="class" operator="greaterThan" value="0.5"/>
                            </Node>
                        </Node>
                        <Node id="4" recordCount="805.0">
                            <SimplePredicate field="response" operator="greaterThan" value="0.5"/>
                            <Node id="5" score="1.0000000000000000" recordCount="610.0">
                                <SimplePredicate field="class" operator="lessOrEqual" value="0.5"/>
                            </Node>
                            <Node id="6" score="2.0000000000000000" recordCount="195.0">
                                <SimplePredicate field="class" operator="greaterThan" value="0.5"/>
                            </Node>
                        </Node>
                    </Node>
                </TreeModel>
            </Segment>
            <Segment id="17" weight="1">
                <True/>
                <TreeModel modelName="DecisionTreeRegressor" functionName="classification" missingValuePenalty="1.0">
                    <MiningSchema>
                        <MiningField name="age" usageType="active"/>
                        <MiningField name="income" usageType="active"/>
                        <MiningField name="class" usageType="active"/>
                        <MiningField name="response" usageType="active"/>
                    </MiningSchema>
                    <Node id="0" recordCount="1862.0">
                        <True/>
                        <Node id="1" recordCount="1064.0">
                            <SimplePredicate field="response" operator="lessOrEqual" value="0.5"/>
                            <Node id="2" score="0.0000000000000000" recordCount="688.0">
                                <SimplePredicate field="class" operator="lessOrEqual" value="0.5"/>
                            </Node>
                            <Node id="3" score="1.0000000000000000" recordCount="376.0">
                                <SimplePredicate field="class" operator="greaterThan" value="0.5"/>
                            </Node>
                        </Node>
                        <Node id="4" recordCount="798.0">
                            <SimplePredicate field="response" operator="greaterThan" value="0.5"/>
                            <Node id="5" score="1.0000000000000000" recordCount="603.0">
                                <SimplePredicate field="class" operator="lessOrEqual" value="0.5"/>
                            </Node>
                            <Node id="6" score="2.0000000000000000" recordCount="195.0">
                                <SimplePredicate field="class" operator="greaterThan" value="0.5"/>
                            </Node>
                        </Node>
                    </Node>
                </TreeModel>
            </Segment>
            <Segment id="18" weight="1">
                <True/>
                <TreeModel modelName="DecisionTreeRegressor" functionName="classification" missingValuePenalty="1.0">
                    <MiningSchema>
                        <MiningField name="age" usageType="active"/>
                        <MiningField name="income" usageType="active"/>
                        <MiningField name="class" usageType="active"/>
                        <MiningField name="response" usageType="active"/>
                    </MiningSchema>
                    <Node id="0" recordCount="1921.0">
                        <True/>
                        <Node id="1" recordCount="1116.0">
                            <SimplePredicate field="response" operator="lessOrEqual" value="0.5"/>
                            <Node id="2" score="0.0000000000000000" recordCount="723.0">
                                <SimplePredicate field="class" operator="lessOrEqual" value="0.5"/>
                            </Node>
                            <Node id="3" score="1.0000000000000000" recordCount="393.0">
                                <SimplePredicate field="class" operator="greaterThan" value="0.5"/>
                            </Node>
                        </Node>
                        <Node id="4" recordCount="805.0">
                            <SimplePredicate field="response" operator="greaterThan" value="0.5"/>
                            <Node id="5" score="1.0000000000000000" recordCount="599.0">
                                <SimplePredicate field="class" operator="lessOrEqual" value="0.5"/>
                            </Node>
                            <Node id="6" score="2.0000000000000000" recordCount="206.0">
                                <SimplePredicate field="class" operator="greaterThan" value="0.5"/>
                            </Node>
                        </Node>
                    </Node>
                </TreeModel>
            </Segment>
            <Segment id="19" weight="1">
                <True/>
                <TreeModel modelName="DecisionTreeRegressor" functionName="classification" missingValuePenalty="1.0">
                    <MiningSchema>
                        <MiningField name="age" usageType="active"/>
                        <MiningField name="income" usageType="active"/>
                        <MiningField name="class" usageType="active"/>
                        <MiningField name="response" usageType="active"/>
                    </MiningSchema>
                    <Node id="0" recordCount="1873.0">
                        <True/>
                        <Node id="1" recordCount="1098.0">
                            <SimplePredicate field="response" operator="lessOrEqual" value="0.5"/>
                            <Node id="2" score="0.0000000000000000" recordCount="704.0">
                                <SimplePredicate field="class" operator="lessOrEqual" value="0.5"/>
                            </Node>
                            <Node id="3" score="1.0000000000000000" recordCount="394.0">
                                <SimplePredicate field="class" operator="greaterThan" value="0.5"/>
                            </Node>
                        </Node>
                        <Node id="4" recordCount="775.0">
                            <SimplePredicate field="response" operator="greaterThan" value="0.5"/>
                            <Node id="5" score="1.0000000000000000" recordCount="596.0">
                                <SimplePredicate field="class" operator="lessOrEqual" value="0.5"/>
                            </Node>
                            <Node id="6" score="2.0000000000000000" recordCount="179.0">
                                <SimplePredicate field="class" operator="greaterThan" value="0.5"/>
                            </Node>
                        </Node>
                    </Node>
                </TreeModel>
            </Segment>
            <Segment id="20" weight="1">
                <True/>
                <TreeModel modelName="DecisionTreeRegressor" functionName="classification" missingValuePenalty="1.0">
                    <MiningSchema>
                        <MiningField name="age" usageType="active"/>
                        <MiningField name="income" usageType="active"/>
                        <MiningField name="class" usageType="active"/>
                        <MiningField name="response" usageType="active"/>
                    </MiningSchema>
                    <Node id="0" recordCount="1894.0">
                        <True/>
                        <Node id="1" recordCount="1098.0">
                            <SimplePredicate field="response" operator="lessOrEqual" value="0.5"/>
                            <Node id="2" score="0.0000000000000000" recordCount="707.0">
                                <SimplePredicate field="class" operator="lessOrEqual" value="0.5"/>
                            </Node>
                            <Node id="3" score="1.0000000000000000" recordCount="391.0">
                                <SimplePredicate field="class" operator="greaterThan" value="0.5"/>
                            </Node>
                        </Node>
                        <Node id="4" recordCount="796.0">
                            <SimplePredicate field="response" operator="greaterThan" value="0.5"/>
                            <Node id="5" score="1.0000000000000000" recordCount="602.0">
                                <SimplePredicate field="class" operator="lessOrEqual" value="0.5"/>
                            </Node>
                            <Node id="6" score="2.0000000000000000" recordCount="194.0">
                                <SimplePredicate field="class" operator="greaterThan" value="0.5"/>
                            </Node>
                        </Node>
                    </Node>
                </TreeModel>
            </Segment>
            <Segment id="21" weight="1">
                <True/>
                <TreeModel modelName="DecisionTreeRegressor" functionName="classification" missingValuePenalty="1.0">
                    <MiningSchema>
                        <MiningField name="age" usageType="active"/>
                        <MiningField name="income" usageType="active"/>
                        <MiningField name="class" usageType="active"/>
                        <MiningField name="response" usageType="active"/>
                    </MiningSchema>
                    <Node id="0" recordCount="1861.0">
                        <True/>
                        <Node id="1" recordCount="1094.0">
                            <SimplePredicate field="response" operator="lessOrEqual" value="0.5"/>
                            <Node id="2" score="0.0000000000000000" recordCount="716.0">
                                <SimplePredicate field="class" operator="lessOrEqual" value="0.5"/>
                            </Node>
                            <Node id="3" score="1.0000000000000000" recordCount="378.0">
                                <SimplePredicate field="class" operator="greaterThan" value="0.5"/>
                            </Node>
                        </Node>
                        <Node id="4" recordCount="767.0">
                            <SimplePredicate field="response" operator="greaterThan" value="0.5"/>
                            <Node id="5" score="1.0000000000000000" recordCount="578.0">
                                <SimplePredicate field="class" operator="lessOrEqual" value="0.5"/>
                            </Node>
                            <Node id="6" score="2.0000000000000000" recordCount="189.0">
                                <SimplePredicate field="class" operator="greaterThan" value="0.5"/>
                            </Node>
                        </Node>
                    </Node>
                </TreeModel>
            </Segment>
            <Segment id="22" weight="1">
                <True/>
                <TreeModel modelName="DecisionTreeRegressor" functionName="classification" missingValuePenalty="1.0">
                    <MiningSchema>
                        <MiningField name="age" usageType="active"/>
                        <MiningField name="income" usageType="active"/>
                        <MiningField name="class" usageType="active"/>
                        <MiningField name="response" usageType="active"/>
                    </MiningSchema>
                    <Node id="0" recordCount="1881.0">
                        <True/>
                        <Node id="1" recordCount="1089.0">
                            <SimplePredicate field="response" operator="lessOrEqual" value="0.5"/>
                            <Node id="2" score="0.0000000000000000" recordCount="697.0">
                                <SimplePredicate field="class" operator="lessOrEqual" value="0.5"/>
                            </Node>
                            <Node id="3" score="1.0000000000000000" recordCount="392.0">
                                <SimplePredicate field="class" operator="greaterThan" value="0.5"/>
                            </Node>
                        </Node>
                        <Node id="4" recordCount="792.0">
                            <SimplePredicate field="response" operator="greaterThan" value="0.5"/>
                            <Node id="5" score="1.0000000000000000" recordCount="597.0">
                                <SimplePredicate field="class" operator="lessOrEqual" value="0.5"/>
                            </Node>
                            <Node id="6" score="2.0000000000000000" recordCount="195.0">
                                <SimplePredicate field="class" operator="greaterThan" value="0.5"/>
                            </Node>
                        </Node>
                    </Node>
                </TreeModel>
            </Segment>
            <Segment id="23" weight="1">
                <True/>
                <TreeModel modelName="DecisionTreeRegressor" functionName="classification" missingValuePenalty="1.0">
                    <MiningSchema>
                        <MiningField name="age" usageType="active"/>
                        <MiningField name="income" usageType="active"/>
                        <MiningField name="class" usageType="active"/>
                        <MiningField name="response" usageType="active"/>
                    </MiningSchema>
                    <Node id="0" recordCount="1889.0">
                        <True/>
                        <Node id="1" recordCount="1098.0">
                            <SimplePredicate field="response" operator="lessOrEqual" value="0.5"/>
                            <Node id="2" score="0.0000000000000000" recordCount="717.0">
                                <SimplePredicate field="class" operator="lessOrEqual" value="0.5"/>
                            </Node>
                            <Node id="3" score="1.0000000000000000" recordCount="381.0">
                                <SimplePredicate field="class" operator="greaterThan" value="0.5"/>
                            </Node>
                        </Node>
                        <Node id="4" recordCount="791.0">
                            <SimplePredicate field="response" operator="greaterThan" value="0.5"/>
                            <Node id="5" score="1.0000000000000000" recordCount="599.0">
                                <SimplePredicate field="class" operator="lessOrEqual" value="0.5"/>
                            </Node>
                            <Node id="6" score="2.0000000000000000" recordCount="192.0">
                                <SimplePredicate field="class" operator="greaterThan" value="0.5"/>
                            </Node>
                        </Node>
                    </Node>
                </TreeModel>
            </Segment>
            <Segment id="24" weight="1">
                <True/>
                <TreeModel modelName="DecisionTreeRegressor" functionName="classification" missingValuePenalty="1.0">
                    <MiningSchema>
                        <MiningField name="age" usageType="active"/>
                        <MiningField name="income" usageType="active"/>
                        <MiningField name="class" usageType="active"/>
                        <MiningField name="response" usageType="active"/>
                    </MiningSchema>
                    <Node id="0" recordCount="1887.0">
                        <True/>
                        <Node id="1" recordCount="1069.0">
                            <SimplePredicate field="response" operator="lessOrEqual" value="0.5"/>
                            <Node id="2" score="0.0000000000000000" recordCount="693.0">
                                <SimplePredicate field="class" operator="lessOrEqual" value="0.5"/>
                            </Node>
                            <Node id="3" score="1.0000000000000000" recordCount="376.0">
                                <SimplePredicate field="class" operator="greaterThan" value="0.5"/>
                            </Node>
                        </Node>
                        <Node id="4" recordCount="818.0">
                            <SimplePredicate field="response" operator="greaterThan" value="0.5"/>
                            <Node id="5" score="1.0000000000000000" recordCount="624.0">
                                <SimplePredicate field="class" operator="lessOrEqual" value="0.5"/>
                            </Node>
                            <Node id="6" score="2.0000000000000000" recordCount="194.0">
                                <SimplePredicate field="class" operator="greaterThan" value="0.5"/>
                            </Node>
                        </Node>
                    </Node>
                </TreeModel>
            </Segment>
            <Segment id="25" weight="1">
                <True/>
                <TreeModel modelName="DecisionTreeRegressor" functionName="classification" missingValuePenalty="1.0">
                    <MiningSchema>
                        <MiningField name="age" usageType="active"/>
                        <MiningField name="income" usageType="active"/>
                        <MiningField name="class" usageType="active"/>
                        <MiningField name="response" usageType="active"/>
                    </MiningSchema>
                    <Node id="0" recordCount="1892.0">
                        <True/>
                        <Node id="1" recordCount="1121.0">
                            <SimplePredicate field="response" operator="lessOrEqual" value="0.5"/>
                            <Node id="2" score="0.0000000000000000" recordCount="733.0">
                                <SimplePredicate field="class" operator="lessOrEqual" value="0.5"/>
                            </Node>
                            <Node id="3" score="1.0000000000000000" recordCount="388.0">
                                <SimplePredicate field="class" operator="greaterThan" value="0.5"/>
                            </Node>
                        </Node>
                        <Node id="4" recordCount="771.0">
                            <SimplePredicate field="response" operator="greaterThan" value="0.5"/>
                            <Node id="5" score="1.0000000000000000" recordCount="584.0">
                                <SimplePredicate field="class" operator="lessOrEqual" value="0.5"/>
                            </Node>
                            <Node id="6" score="2.0000000000000000" recordCount="187.0">
                                <SimplePredicate field="class" operator="greaterThan" value="0.5"/>
                            </Node>
                        </Node>
                    </Node>
                </TreeModel>
            </Segment>
            <Segment id="26" weight="1">
                <True/>
                <TreeModel modelName="DecisionTreeRegressor" functionName="classification" missingValuePenalty="1.0">
                    <MiningSchema>
                        <MiningField name="age" usageType="active"/>
                        <MiningField name="income" usageType="active"/>
                        <MiningField name="class" usageType="active"/>
                        <MiningField name="response" usageType="active"/>
                    </MiningSchema>
                    <Node id="0" recordCount="1873.0">
                        <True/>
                        <Node id="1" recordCount="1064.0">
                            <SimplePredicate field="response" operator="lessOrEqual" value="0.5"/>
                            <Node id="2" score="0.0000000000000000" recordCount="703.0">
                                <SimplePredicate field="class" operator="lessOrEqual" value="0.5"/>
                            </Node>
                            <Node id="3" score="1.0000000000000000" recordCount="361.0">
                                <SimplePredicate field="class" operator="greaterThan" value="0.5"/>
                            </Node>
                        </Node>
                        <Node id="4" recordCount="809.0">
                            <SimplePredicate field="response" operator="greaterThan" value="0.5"/>
                            <Node id="5" score="1.0000000000000000" recordCount="603.0">
                                <SimplePredicate field="class" operator="lessOrEqual" value="0.5"/>
                            </Node>
                            <Node id="6" score="2.0000000000000000" recordCount="206.0">
                                <SimplePredicate field="class" operator="greaterThan" value="0.5"/>
                            </Node>
                        </Node>
                    </Node>
                </TreeModel>
            </Segment>
            <Segment id="27" weight="1">
                <True/>
                <TreeModel modelName="DecisionTreeRegressor" functionName="classification" missingValuePenalty="1.0">
                    <MiningSchema>
                        <MiningField name="age" usageType="active"/>
                        <MiningField name="income" usageType="active"/>
                        <MiningField name="class" usageType="active"/>
                        <MiningField name="response" usageType="active"/>
                    </MiningSchema>
                    <Node id="0" recordCount="1918.0">
                        <True/>
                        <Node id="1" recordCount="1096.0">
                            <SimplePredicate field="response" operator="lessOrEqual" value="0.5"/>
                            <Node id="2" score="0.0000000000000000" recordCount="718.0">
                                <SimplePredicate field="class" operator="lessOrEqual" value="0.5"/>
                            </Node>
                            <Node id="3" score="1.0000000000000000" recordCount="378.0">
                                <SimplePredicate field="class" operator="greaterThan" value="0.5"/>
                            </Node>
                        </Node>
                        <Node id="4" recordCount="822.0">
                            <SimplePredicate field="response" operator="greaterThan" value="0.5"/>
                            <Node id="5" score="1.0000000000000000" recordCount="614.0">
                                <SimplePredicate field="class" operator="lessOrEqual" value="0.5"/>
                            </Node>
                            <Node id="6" score="2.0000000000000000" recordCount="208.0">
                                <SimplePredicate field="class" operator="greaterThan" value="0.5"/>
                            </Node>
                        </Node>
                    </Node>
                </TreeModel>
            </Segment>
            <Segment id="28" weight="1">
                <True/>
                <TreeModel modelName="DecisionTreeRegressor" functionName="classification" missingValuePenalty="1.0">
                    <MiningSchema>
                        <MiningField name="age" usageType="active"/>
                        <MiningField name="income" usageType="active"/>
                        <MiningField name="class" usageType="active"/>
                        <MiningField name="response" usageType="active"/>
                    </MiningSchema>
                    <Node id="0" recordCount="1893.0">
                        <True/>
                        <Node id="1" recordCount="1092.0">
                            <SimplePredicate field="response" operator="lessOrEqual" value="0.5"/>
                            <Node id="2" score="0.0000000000000000" recordCount="695.0">
                                <SimplePredicate field="class" operator="lessOrEqual" value="0.5"/>
                            </Node>
                            <Node id="3" score="1.0000000000000000" recordCount="397.0">
                                <SimplePredicate field="class" operator="greaterThan" value="0.5"/>
                            </Node>
                        </Node>
                        <Node id="4" recordCount="801.0">
                            <SimplePredicate field="response" operator="greaterThan" value="0.5"/>
                            <Node id="5" score="1.0000000000000000" recordCount="604.0">
                                <SimplePredicate field="class" operator="lessOrEqual" value="0.5"/>
                            </Node>
                            <Node id="6" score="2.0000000000000000" recordCount="197.0">
                                <SimplePredicate field="class" operator="greaterThan" value="0.5"/>
                            </Node>
                        </Node>
                    </Node>
                </TreeModel>
            </Segment>
            <Segment id="29" weight="1">
                <True/>
                <TreeModel modelName="DecisionTreeRegressor" functionName="classification" missingValuePenalty="1.0">
                    <MiningSchema>
                        <MiningField name="age" usageType="active"/>
                        <MiningField name="income" usageType="active"/>
                        <MiningField name="class" usageType="active"/>
                        <MiningField name="response" usageType="active"/>
                    </MiningSchema>
                    <Node id="0" recordCount="1925.0">
                        <True/>
                        <Node id="1" recordCount="1112.0">
                            <SimplePredicate field="response" operator="lessOrEqual" value="0.5"/>
                            <Node id="2" score="0.0000000000000000" recordCount="713.0">
                                <SimplePredicate field="class" operator="lessOrEqual" value="0.5"/>
                            </Node>
                            <Node id="3" score="1.0000000000000000" recordCount="399.0">
                                <SimplePredicate field="class" operator="greaterThan" value="0.5"/>
                            </Node>
                        </Node>
                        <Node id="4" recordCount="813.0">
                            <SimplePredicate field="response" operator="greaterThan" value="0.5"/>
                            <Node id="5" score="1.0000000000000000" recordCount="616.0">
                                <SimplePredicate field="class" operator="lessOrEqual" value="0.5"/>
                            </Node>
                            <Node id="6" score="2.0000000000000000" recordCount="197.0">
                                <SimplePredicate field="class" operator="greaterThan" value="0.5"/>
                            </Node>
                        </Node>
                    </Node>
                </TreeModel>
            </Segment>
            <Segment id="30" weight="1">
                <True/>
                <TreeModel modelName="DecisionTreeRegressor" functionName="classification" missingValuePenalty="1.0">
                    <MiningSchema>
                        <MiningField name="age" usageType="active"/>
                        <MiningField name="income" usageType="active"/>
                        <MiningField name="class" usageType="active"/>
                        <MiningField name="response" usageType="active"/>
                    </MiningSchema>
                    <Node id="0" recordCount="1904.0">
                        <True/>
                        <Node id="1" recordCount="1081.0">
                            <SimplePredicate field="response" operator="lessOrEqual" value="0.5"/>
                            <Node id="2" score="0.0000000000000000" recordCount="696.0">
                                <SimplePredicate field="class" operator="lessOrEqual" value="0.5"/>
                            </Node>
                            <Node id="3" score="1.0000000000000000" recordCount="385.0">
                                <SimplePredicate field="class" operator="greaterThan" value="0.5"/>
                            </Node>
                        </Node>
                        <Node id="4" recordCount="823.0">
                            <SimplePredicate field="response" operator="greaterThan" value="0.5"/>
                            <Node id="5" score="1.0000000000000000" recordCount="615.0">
                                <SimplePredicate field="class" operator="lessOrEqual" value="0.5"/>
                            </Node>
                            <Node id="6" score="2.0000000000000000" recordCount="208.0">
                                <SimplePredicate field="class" operator="greaterThan" value="0.5"/>
                            </Node>
                        </Node>
                    </Node>
                </TreeModel>
            </Segment>
            <Segment id="31" weight="1">
                <True/>
                <TreeModel modelName="DecisionTreeRegressor" functionName="classification" missingValuePenalty="1.0">
                    <MiningSchema>
                        <MiningField name="age" usageType="active"/>
                        <MiningField name="income" usageType="active"/>
                        <MiningField name="class" usageType="active"/>
                        <MiningField name="response" usageType="active"/>
                    </MiningSchema>
                    <Node id="0" recordCount="1900.0">
                        <True/>
                        <Node id="1" recordCount="1100.0">
                            <SimplePredicate field="response" operator="lessOrEqual" value="0.5"/>
                            <Node id="2" score="0.0000000000000000" recordCount="719.0">
                                <SimplePredicate field="class" operator="lessOrEqual" value="0.5"/>
                            </Node>
                            <Node id="3" score="1.0000000000000000" recordCount="381.0">
                                <SimplePredicate field="class" operator="greaterThan" value="0.5"/>
                            </Node>
                        </Node>
                        <Node id="4" recordCount="800.0">
                            <SimplePredicate field="response" operator="greaterThan" value="0.5"/>
                            <Node id="5" score="1.0000000000000000" recordCount="601.0">
                                <SimplePredicate field="class" operator="lessOrEqual" value="0.5"/>
                            </Node>
                            <Node id="6" score="2.0000000000000000" recordCount="199.0">
                                <SimplePredicate field="class" operator="greaterThan" value="0.5"/>
                            </Node>
                        </Node>
                    </Node>
                </TreeModel>
            </Segment>
            <Segment id="32" weight="1">
                <True/>
                <TreeModel modelName="DecisionTreeRegressor" functionName="classification" missingValuePenalty="1.0">
                    <MiningSchema>
                        <MiningField name="age" usageType="active"/>
                        <MiningField name="income" usageType="active"/>
                        <MiningField name="class" usageType="active"/>
                        <MiningField name="response" usageType="active"/>
                    </MiningSchema>
                    <Node id="0" recordCount="1955.0">
                        <True/>
                        <Node id="1" recordCount="1131.0">
                            <SimplePredicate field="response" operator="lessOrEqual" value="0.5"/>
                            <Node id="2" score="0.0000000000000000" recordCount="742.0">
                                <SimplePredicate field="class" operator="lessOrEqual" value="0.5"/>
                            </Node>
                            <Node id="3" score="1.0000000000000000" recordCount="389.0">
                                <SimplePredicate field="class" operator="greaterThan" value="0.5"/>
                            </Node>
                        </Node>
                        <Node id="4" recordCount="824.0">
                            <SimplePredicate field="response" operator="greaterThan" value="0.5"/>
                            <Node id="5" score="1.0000000000000000" recordCount="617.0">
                                <SimplePredicate field="class" operator="lessOrEqual" value="0.5"/>
                            </Node>
                            <Node id="6" score="2.0000000000000000" recordCount="207.0">
                                <SimplePredicate field="class" operator="greaterThan" value="0.5"/>
                            </Node>
                        </Node>
                    </Node>
                </TreeModel>
            </Segment>
            <Segment id="33" weight="1">
                <True/>
                <TreeModel modelName="DecisionTreeRegressor" functionName="classification" missingValuePenalty="1.0">
                    <MiningSchema>
                        <MiningField name="age" usageType="active"/>
                        <MiningField name="income" usageType="active"/>
                        <MiningField name="class" usageType="active"/>
                        <MiningField name="response" usageType="active"/>
                    </MiningSchema>
                    <Node id="0" recordCount="1923.0">
                        <True/>
                        <Node id="1" recordCount="1118.0">
                            <SimplePredicate field="response" operator="lessOrEqual" value="0.5"/>
                            <Node id="2" score="0.0000000000000000" recordCount="729.0">
                                <SimplePredicate field="class" operator="lessOrEqual" value="0.5"/>
                            </Node>
                            <Node id="3" score="1.0000000000000000" recordCount="389.0">
                                <SimplePredicate field="class" operator="greaterThan" value="0.5"/>
                            </Node>
                        </Node>
                        <Node id="4" recordCount="805.0">
                            <SimplePredicate field="response" operator="greaterThan" value="0.5"/>
                            <Node id="5" score="1.0000000000000000" recordCount="608.0">
                                <SimplePredicate field="class" operator="lessOrEqual" value="0.5"/>
                            </Node>
                            <Node id="6" score="2.0000000000000000" recordCount="197.0">
                                <SimplePredicate field="class" operator="greaterThan" value="0.5"/>
                            </Node>
                        </Node>
                    </Node>
                </TreeModel>
            </Segment>
            <Segment id="34" weight="1">
                <True/>
                <TreeModel modelName="DecisionTreeRegressor" functionName="classification" missingValuePenalty="1.0">
                    <MiningSchema>
                        <MiningField name="age" usageType="active"/>
                        <MiningField name="income" usageType="active"/>
                        <MiningField name="class" usageType="active"/>
                        <MiningField name="response" usageType="active"/>
                    </MiningSchema>
                    <Node id="0" recordCount="1920.0">
                        <True/>
                        <Node id="1" recordCount="1097.0">
                            <SimplePredicate field="response" operator="lessOrEqual" value="0.5"/>
                            <Node id="2" score="0.0000000000000000" recordCount="706.0">
                                <SimplePredicate field="class" operator="lessOrEqual" value="0.5"/>
                            </Node>
                            <Node id="3" score="1.0000000000000000" recordCount="391.0">
                                <SimplePredicate field="class" operator="greaterThan" value="0.5"/>
                            </Node>
                        </Node>
                        <Node id="4" recordCount="823.0">
                            <SimplePredicate field="response" operator="greaterThan" value="0.5"/>
                            <Node id="5" score="1.0000000000000000" recordCount="609.0">
                                <SimplePredicate field="class" operator="lessOrEqual" value="0.5"/>
                            </Node>
                            <Node id="6" score="2.0000000000000000" recordCount="214.0">
                                <SimplePredicate field="class" operator="greaterThan" value="0.5"/>
                            </Node>
                        </Node>
                    </Node>
                </TreeModel>
            </Segment>
            <Segment id="35" weight="1">
                <True/>
                <TreeModel modelName="DecisionTreeRegressor" functionName="classification" missingValuePenalty="1.0">
                    <MiningSchema>
                        <MiningField name="age" usageType="active"/>
                        <MiningField name="income" usageType="active"/>
                        <MiningField name="class" usageType="active"/>
                        <MiningField name="response" usageType="active"/>
                    </MiningSchema>
                    <Node id="0" recordCount="1910.0">
                        <True/>
                        <Node id="1" recordCount="1125.0">
                            <SimplePredicate field="response" operator="lessOrEqual" value="0.5"/>
                            <Node id="2" score="0.0000000000000000" recordCount="727.0">
                                <SimplePredicate field="class" operator="lessOrEqual" value="0.5"/>
                            </Node>
                            <Node id="3" score="1.0000000000000000" recordCount="398.0">
                                <SimplePredicate field="class" operator="greaterThan" value="0.5"/>
                            </Node>
                        </Node>
                        <Node id="4" recordCount="785.0">
                            <SimplePredicate field="response" operator="greaterThan" value="0.5"/>
                            <Node id="5" score="1.0000000000000000" recordCount="591.0">
                                <SimplePredicate field="class" operator="lessOrEqual" value="0.5"/>
                            </Node>
                            <Node id="6" score="2.0000000000000000" recordCount="194.0">
                                <SimplePredicate field="class" operator="greaterThan" value="0.5"/>
                            </Node>
                        </Node>
                    </Node>
                </TreeModel>
            </Segment>
            <Segment id="36" weight="1">
                <True/>
                <TreeModel modelName="DecisionTreeRegressor" functionName="classification" missingValuePenalty="1.0">
                    <MiningSchema>
                        <MiningField name="age" usageType="active"/>
                        <MiningField name="income" usageType="active"/>
                        <MiningField name="class" usageType="active"/>
                        <MiningField name="response" usageType="active"/>
                    </MiningSchema>
                    <Node id="0" recordCount="1896.0">
                        <True/>
                        <Node id="1" recordCount="1082.0">
                            <SimplePredicate field="response" operator="lessOrEqual" value="0.5"/>
                            <Node id="2" score="0.0000000000000000" recordCount="698.0">
                                <SimplePredicate field="class" operator="lessOrEqual" value="0.5"/>
                            </Node>
                            <Node id="3" score="1.0000000000000000" recordCount="384.0">
                                <SimplePredicate field="class" operator="greaterThan" value="0.5"/>
                            </Node>
                        </Node>
                        <Node id="4" recordCount="814.0">
                            <SimplePredicate field="response" operator="greaterThan" value="0.5"/>
                            <Node id="5" score="1.0000000000000000" recordCount="613.0">
                                <SimplePredicate field="class" operator="lessOrEqual" value="0.5"/>
                            </Node>
                            <Node id="6" score="2.0000000000000000" recordCount="201.0">
                                <SimplePredicate field="class" operator="greaterThan" value="0.5"/>
                            </Node>
                        </Node>
                    </Node>
                </TreeModel>
            </Segment>
            <Segment id="37" weight="1">
                <True/>
                <TreeModel modelName="DecisionTreeRegressor" functionName="classification" missingValuePenalty="1.0">
                    <MiningSchema>
                        <MiningField name="age" usageType="active"/>
                        <MiningField name="income" usageType="active"/>
                        <MiningField name="class" usageType="active"/>
                        <MiningField name="response" usageType="active"/>
                    </MiningSchema>
                    <Node id="0" recordCount="1901.0">
                        <True/>
                        <Node id="1" recordCount="1101.0">
                            <SimplePredicate field="response" operator="lessOrEqual" value="0.5"/>
                            <Node id="2" score="0.0000000000000000" recordCount="724.0">
                                <SimplePredicate field="class" operator="lessOrEqual" value="0.5"/>
                            </Node>
                            <Node id="3" score="1.0000000000000000" recordCount="377.0">
                                <SimplePredicate field="class" operator="greaterThan" value="0.5"/>
                            </Node>
                        </Node>
                        <Node id="4" recordCount="800.0">
                            <SimplePredicate field="response" operator="greaterThan" value="0.5"/>
                            <Node id="5" score="1.0000000000000000" recordCount="598.0">
                                <SimplePredicate field="class" operator="lessOrEqual" value="0.5"/>
                            </Node>
                            <Node id="6" score="2.0000000000000000" recordCount="202.0">
                                <SimplePredicate field="class" operator="greaterThan" value="0.5"/>
                            </Node>
                        </Node>
                    </Node>
                </TreeModel>
            </Segment>
            <Segment id="38" weight="1">
                <True/>
                <TreeModel modelName="DecisionTreeRegressor" functionName="classification" missingValuePenalty="1.0">
                    <MiningSchema>
                        <MiningField name="age" usageType="active"/>
                        <MiningField name="income" usageType="active"/>
                        <MiningField name="class" usageType="active"/>
                        <MiningField name="response" usageType="active"/>
                    </MiningSchema>
                    <Node id="0" recordCount="1909.0">
                        <True/>
                        <Node id="1" recordCount="1126.0">
                            <SimplePredicate field="response" operator="lessOrEqual" value="0.5"/>
                            <Node id="2" score="0.0000000000000000" recordCount="733.0">
                                <SimplePredicate field="class" operator="lessOrEqual" value="0.5"/>
                            </Node>
                            <Node id="3" score="1.0000000000000000" recordCount="393.0">
                                <SimplePredicate field="class" operator="greaterThan" value="0.5"/>
                            </Node>
                        </Node>
                        <Node id="4" recordCount="783.0">
                            <SimplePredicate field="response" operator="greaterThan" value="0.5"/>
                            <Node id="5" score="1.0000000000000000" recordCount="580.0">
                                <SimplePredicate field="class" operator="lessOrEqual" value="0.5"/>
                            </Node>
                            <Node id="6" score="2.0000000000000000" recordCount="203.0">
                                <SimplePredicate field="class" operator="greaterThan" value="0.5"/>
                            </Node>
                        </Node>
                    </Node>
                </TreeModel>
            </Segment>
            <Segment id="39" weight="1">
                <True/>
                <TreeModel modelName="DecisionTreeRegressor" functionName="classification" missingValuePenalty="1.0">
                    <MiningSchema>
                        <MiningField name="age" usageType="active"/>
                        <MiningField name="income" usageType="active"/>
                        <MiningField name="class" usageType="active"/>
                        <MiningField name="response" usageType="active"/>
                    </MiningSchema>
                    <Node id="0" recordCount="1920.0">
                        <True/>
                        <Node id="1" recordCount="1112.0">
                            <SimplePredicate field="response" operator="lessOrEqual" value="0.5"/>
                            <Node id="2" score="0.0000000000000000" recordCount="738.0">
                                <SimplePredicate field="class" operator="lessOrEqual" value="0.5"/>
                            </Node>
                            <Node id="3" score="1.0000000000000000" recordCount="374.0">
                                <SimplePredicate field="class" operator="greaterThan" value="0.5"/>
                            </Node>
                        </Node>
                        <Node id="4" recordCount="808.0">
                            <SimplePredicate field="response" operator="greaterThan" value="0.5"/>
                            <Node id="5" score="1.0000000000000000" recordCount="599.0">
                                <SimplePredicate field="class" operator="lessOrEqual" value="0.5"/>
                            </Node>
                            <Node id="6" score="2.0000000000000000" recordCount="209.0">
                                <SimplePredicate field="class" operator="greaterThan" value="0.5"/>
                            </Node>
                        </Node>
                    </Node>
                </TreeModel>
            </Segment>
            <Segment id="40" weight="1">
                <True/>
                <TreeModel modelName="DecisionTreeRegressor" functionName="classification" missingValuePenalty="1.0">
                    <MiningSchema>
                        <MiningField name="age" usageType="active"/>
                        <MiningField name="income" usageType="active"/>
                        <MiningField name="class" usageType="active"/>
                        <MiningField name="response" usageType="active"/>
                    </MiningSchema>
                    <Node id="0" recordCount="1920.0">
                        <True/>
                        <Node id="1" recordCount="1075.0">
                            <SimplePredicate field="response" operator="lessOrEqual" value="0.5"/>
                            <Node id="2" score="0.0000000000000000" recordCount="701.0">
                                <SimplePredicate field="class" operator="lessOrEqual" value="0.5"/>
                            </Node>
                            <Node id="3" score="1.0000000000000000" recordCount="374.0">
                                <SimplePredicate field="class" operator="greaterThan" value="0.5"/>
                            </Node>
                        </Node>
                        <Node id="4" recordCount="845.0">
                            <SimplePredicate field="response" operator="greaterThan" value="0.5"/>
                            <Node id="5" score="1.0000000000000000" recordCount="640.0">
                                <SimplePredicate field="class" operator="lessOrEqual" value="0.5"/>
                            </Node>
                            <Node id="6" score="2.0000000000000000" recordCount="205.0">
                                <SimplePredicate field="class" operator="greaterThan" value="0.5"/>
                            </Node>
                        </Node>
                    </Node>
                </TreeModel>
            </Segment>
            <Segment id="41" weight="1">
                <True/>
                <TreeModel modelName="DecisionTreeRegressor" functionName="classification" missingValuePenalty="1.0">
                    <MiningSchema>
                        <MiningField name="age" usageType="active"/>
                        <MiningField name="income" usageType="active"/>
                        <MiningField name="class" usageType="active"/>
                        <MiningField name="response" usageType="active"/>
                    </MiningSchema>
                    <Node id="0" recordCount="1900.0">
                        <True/>
                        <Node id="1" recordCount="1084.0">
                            <SimplePredicate field="response" operator="lessOrEqual" value="0.5"/>
                            <Node id="2" score="0.0000000000000000" recordCount="709.0">
                                <SimplePredicate field="class" operator="lessOrEqual" value="0.5"/>
                            </Node>
                            <Node id="3" score="1.0000000000000000" recordCount="375.0">
                                <SimplePredicate field="class" operator="greaterThan" value="0.5"/>
                            </Node>
                        </Node>
                        <Node id="4" recordCount="816.0">
                            <SimplePredicate field="response" operator="greaterThan" value="0.5"/>
                            <Node id="5" score="1.0000000000000000" recordCount="607.0">
                                <SimplePredicate field="class" operator="lessOrEqual" value="0.5"/>
                            </Node>
                            <Node id="6" score="2.0000000000000000" recordCount="209.0">
                                <SimplePredicate field="class" operator="greaterThan" value="0.5"/>
                            </Node>
                        </Node>
                    </Node>
                </TreeModel>
            </Segment>
            <Segment id="42" weight="1">
                <True/>
                <TreeModel modelName="DecisionTreeRegressor" functionName="classification" missingValuePenalty="1.0">
                    <MiningSchema>
                        <MiningField name="age" usageType="active"/>
                        <MiningField name="income" usageType="active"/>
                        <MiningField name="class" usageType="active"/>
                        <MiningField name="response" usageType="active"/>
                    </MiningSchema>
                    <Node id="0" recordCount="1887.0">
                        <True/>
                        <Node id="1" recordCount="1051.0">
                            <SimplePredicate field="response" operator="lessOrEqual" value="0.5"/>
                            <Node id="2" score="0.0000000000000000" recordCount="686.0">
                                <SimplePredicate field="class" operator="lessOrEqual" value="0.5"/>
                            </Node>
                            <Node id="3" score="1.0000000000000000" recordCount="365.0">
                                <SimplePredicate field="class" operator="greaterThan" value="0.5"/>
                            </Node>
                        </Node>
                        <Node id="4" recordCount="836.0">
                            <SimplePredicate field="response" operator="greaterThan" value="0.5"/>
                            <Node id="5" score="1.0000000000000000" recordCount="627.0">
                                <SimplePredicate field="class" operator="lessOrEqual" value="0.5"/>
                            </Node>
                            <Node id="6" score="2.0000000000000000" recordCount="209.0">
                                <SimplePredicate field="class" operator="greaterThan" value="0.5"/>
                            </Node>
                        </Node>
                    </Node>
                </TreeModel>
            </Segment>
            <Segment id="43" weight="1">
                <True/>
                <TreeModel modelName="DecisionTreeRegressor" functionName="classification" missingValuePenalty="1.0">
                    <MiningSchema>
                        <MiningField name="age" usageType="active"/>
                        <MiningField name="income" usageType="active"/>
                        <MiningField name="class" usageType="active"/>
                        <MiningField name="response" usageType="active"/>
                    </MiningSchema>
                    <Node id="0" recordCount="1904.0">
                        <True/>
                        <Node id="1" recordCount="1103.0">
                            <SimplePredicate field="response" operator="lessOrEqual" value="0.5"/>
                            <Node id="2" score="0.0000000000000000" recordCount="734.0">
                                <SimplePredicate field="class" operator="lessOrEqual" value="0.5"/>
                            </Node>
                            <Node id="3" score="1.0000000000000000" recordCount="369.0">
                                <SimplePredicate field="class" operator="greaterThan" value="0.5"/>
                            </Node>
                        </Node>
                        <Node id="4" recordCount="801.0">
                            <SimplePredicate field="response" operator="greaterThan" value="0.5"/>
                            <Node id="5" score="1.0000000000000000" recordCount="605.0">
                                <SimplePredicate field="class" operator="lessOrEqual" value="0.5"/>
                            </Node>
                            <Node id="6" score="2.0000000000000000" recordCount="196.0">
                                <SimplePredicate field="class" operator="greaterThan" value="0.5"/>
                            </Node>
                        </Node>
                    </Node>
                </TreeModel>
            </Segment>
            <Segment id="44" weight="1">
                <True/>
                <TreeModel modelName="DecisionTreeRegressor" functionName="classification" missingValuePenalty="1.0">
                    <MiningSchema>
                        <MiningField name="age" usageType="active"/>
                        <MiningField name="income" usageType="active"/>
                        <MiningField name="class" usageType="active"/>
                        <MiningField name="response" usageType="active"/>
                    </MiningSchema>
                    <Node id="0" recordCount="1941.0">
                        <True/>
                        <Node id="1" recordCount="1116.0">
                            <SimplePredicate field="response" operator="lessOrEqual" value="0.5"/>
                            <Node id="2" score="0.0000000000000000" recordCount="729.0">
                                <SimplePredicate field="class" operator="lessOrEqual" value="0.5"/>
                            </Node>
                            <Node id="3" score="1.0000000000000000" recordCount="387.0">
                                <SimplePredicate field="class" operator="greaterThan" value="0.5"/>
                            </Node>
                        </Node>
                        <Node id="4" recordCount="825.0">
                            <SimplePredicate field="response" operator="greaterThan" value="0.5"/>
                            <Node id="5" score="1.0000000000000000" recordCount="608.0">
                                <SimplePredicate field="class" operator="lessOrEqual" value="0.5"/>
                            </Node>
                            <Node id="6" score="2.0000000000000000" recordCount="217.0">
                                <SimplePredicate field="class" operator="greaterThan" value="0.5"/>
                            </Node>
                        </Node>
                    </Node>
                </TreeModel>
            </Segment>
            <Segment id="45" weight="1">
                <True/>
                <TreeModel modelName="DecisionTreeRegressor" functionName="classification" missingValuePenalty="1.0">
                    <MiningSchema>
                        <MiningField name="age" usageType="active"/>
                        <MiningField name="income" usageType="active"/>
                        <MiningField name="class" usageType="active"/>
                        <MiningField name="response" usageType="active"/>
                    </MiningSchema>
                    <Node id="0" recordCount="1899.0">
                        <True/>
                        <Node id="1" recordCount="1110.0">
                            <SimplePredicate field="response" operator="lessOrEqual" value="0.5"/>
                            <Node id="2" score="0.0000000000000000" recordCount="721.0">
                                <SimplePredicate field="class" operator="lessOrEqual" value="0.5"/>
                            </Node>
                            <Node id="3" score="1.0000000000000000" recordCount="389.0">
                                <SimplePredicate field="class" operator="greaterThan" value="0.5"/>
                            </Node>
                        </Node>
                        <Node id="4" recordCount="789.0">
                            <SimplePredicate field="response" operator="greaterThan" value="0.5"/>
                            <Node id="5" score="1.0000000000000000" recordCount="583.0">
                                <SimplePredicate field="class" operator="lessOrEqual" value="0.5"/>
                            </Node>
                            <Node id="6" score="2.0000000000000000" recordCount="206.0">
                                <SimplePredicate field="class" operator="greaterThan" value="0.5"/>
                            </Node>
                        </Node>
                    </Node>
                </TreeModel>
            </Segment>
            <Segment id="46" weight="1">
                <True/>
                <TreeModel modelName="DecisionTreeRegressor" functionName="classification" missingValuePenalty="1.0">
                    <MiningSchema>
                        <MiningField name="age" usageType="active"/>
                        <MiningField name="income" usageType="active"/>
                        <MiningField name="class" usageType="active"/>
                        <MiningField name="response" usageType="active"/>
                    </MiningSchema>
                    <Node id="0" recordCount="1892.0">
                        <True/>
                        <Node id="1" recordCount="1084.0">
                            <SimplePredicate field="response" operator="lessOrEqual" value="0.5"/>
                            <Node id="2" score="0.0000000000000000" recordCount="696.0">
                                <SimplePredicate field="class" operator="lessOrEqual" value="0.5"/>
                            </Node>
                            <Node id="3" score="1.0000000000000000" recordCount="388.0">
                                <SimplePredicate field="class" operator="greaterThan" value="0.5"/>
                            </Node>
                        </Node>
                        <Node id="4" recordCount="808.0">
                            <SimplePredicate field="response" operator="greaterThan" value="0.5"/>
                            <Node id="5" score="1.0000000000000000" recordCount="616.0">
                                <SimplePredicate field="class" operator="lessOrEqual" value="0.5"/>
                            </Node>
                            <Node id="6" score="2.0000000000000000" recordCount="192.0">
                                <SimplePredicate field="class" operator="greaterThan" value="0.5"/>
                            </Node>
                        </Node>
                    </Node>
                </TreeModel>
            </Segment>
            <Segment id="47" weight="1">
                <True/>
                <TreeModel modelName="DecisionTreeRegressor" functionName="classification" missingValuePenalty="1.0">
                    <MiningSchema>
                        <MiningField name="age" usageType="active"/>
                        <MiningField name="income" usageType="active"/>
                        <MiningField name="class" usageType="active"/>
                        <MiningField name="response" usageType="active"/>
                    </MiningSchema>
                    <Node id="0" recordCount="1904.0">
                        <True/>
                        <Node id="1" recordCount="1098.0">
                            <SimplePredicate field="response" operator="lessOrEqual" value="0.5"/>
                            <Node id="2" score="0.0000000000000000" recordCount="706.0">
                                <SimplePredicate field="class" operator="lessOrEqual" value="0.5"/>
                            </Node>
                            <Node id="3" score="1.0000000000000000" recordCount="392.0">
                                <SimplePredicate field="class" operator="greaterThan" value="0.5"/>
                            </Node>
                        </Node>
                        <Node id="4" recordCount="806.0">
                            <SimplePredicate field="response" operator="greaterThan" value="0.5"/>
                            <Node id="5" score="1.0000000000000000" recordCount="611.0">
                                <SimplePredicate field="class" operator="lessOrEqual" value="0.5"/>
                            </Node>
                            <Node id="6" score="2.0000000000000000" recordCount="195.0">
                                <SimplePredicate field="class" operator="greaterThan" value="0.5"/>
                            </Node>
                        </Node>
                    </Node>
                </TreeModel>
            </Segment>
            <Segment id="48" weight="1">
                <True/>
                <TreeModel modelName="DecisionTreeRegressor" functionName="classification" missingValuePenalty="1.0">
                    <MiningSchema>
                        <MiningField name="age" usageType="active"/>
                        <MiningField name="income" usageType="active"/>
                        <MiningField name="class" usageType="active"/>
                        <MiningField name="response" usageType="active"/>
                    </MiningSchema>
                    <Node id="0" recordCount="1911.0">
                        <True/>
                        <Node id="1" recordCount="1114.0">
                            <SimplePredicate field="response" operator="lessOrEqual" value="0.5"/>
                            <Node id="2" score="0.0000000000000000" recordCount="729.0">
                                <SimplePredicate field="class" operator="lessOrEqual" value="0.5"/>
                            </Node>
                            <Node id="3" score="1.0000000000000000" recordCount="385.0">
                                <SimplePredicate field="class" operator="greaterThan" value="0.5"/>
                            </Node>
                        </Node>
                        <Node id="4" recordCount="797.0">
                            <SimplePredicate field="response" operator="greaterThan" value="0.5"/>
                            <Node id="5" score="1.0000000000000000" recordCount="602.0">
                                <SimplePredicate field="class" operator="lessOrEqual" value="0.5"/>
                            </Node>
                            <Node id="6" score="2.0000000000000000" recordCount="195.0">
                                <SimplePredicate field="class" operator="greaterThan" value="0.5"/>
                            </Node>
                        </Node>
                    </Node>
                </TreeModel>
            </Segment>
            <Segment id="49" weight="1">
                <True/>
                <TreeModel modelName="DecisionTreeRegressor" functionName="classification" missingValuePenalty="1.0">
                    <MiningSchema>
                        <MiningField name="age" usageType="active"/>
                        <MiningField name="income" usageType="active"/>
                        <MiningField name="class" usageType="active"/>
                        <MiningField name="response" usageType="active"/>
                    </MiningSchema>
                    <Node id="0" recordCount="1889.0">
                        <True/>
                        <Node id="1" recordCount="1102.0">
                            <SimplePredicate field="response" operator="lessOrEqual" value="0.5"/>
                            <Node id="2" score="0.0000000000000000" recordCount="723.0">
                                <SimplePredicate field="class" operator="lessOrEqual" value="0.5"/>
                            </Node>
                            <Node id="3" score="1.0000000000000000" recordCount="379.0">
                                <SimplePredicate field="class" operator="greaterThan" value="0.5"/>
